<?xml version="1.0"?>
<opencv_storage>
<!-- window size = 30x15 -->
<smile1 type_id="opencv-haar-classifier">
  <size>
    30 15</size>
  <stages>
    <_>
      <!-- stage 0 -->
      <trees>
        <_>
          <!-- tree 0 -->
          <_>
            <!-- root node -->
            <feature>
              <rects>
                <_>
                  2 5 9 3 -1.</_>
                <_>
                  5 5 3 3 3.</_></rects>
              <tilted>0</tilted></feature>
            <threshold>-0.0173542294651270</threshold>
            <left_val>0.7917159795761108</left_val>
            <right_node>1</right_node></_>
          <_>
            <!-- node 1 -->
            <feature>
              <rects>
                <_>
                  14 6 2 3 -1.</_>
                <_>
                  14 7 2 1 3.</_></rects>
              <tilted>0</tilted></feature>
            <threshold>4.1217468678951263e-003</threshold>
            <left_val>-0.7266960144042969</left_val>
            <right_val>0.5784528851509094</right_val></_></_>
        <_>
          <!-- tree 1 -->
          <_>
            <!-- root node -->
            <feature>
              <rects>
                <_>
                  6 3 18 6 -1.</_>
                <_>
                  12 3 6 6 3.</_></rects>
              <tilted>0</tilted></feature>
            <threshold>0.0759082287549973</threshold>
            <left_node>1</left_node>
            <right_val>0.6644281148910523</right_val></_>
          <_>
            <!-- node 1 -->
            <feature>
              <rects>
                <_>
                  0 14 30 1 -1.</_>
                <_>
                  10 14 10 1 3.</_></rects>
              <tilted>0</tilted></feature>
            <threshold>0.0421574600040913</threshold>
            <left_val>-0.1764730960130692</left_val>
            <right_val>0.6577959060668945</right_val></_></_>
        <_>
          <!-- tree 2 -->
          <_>
            <!-- root node -->
            <feature>
              <rects>
                <_>
                  13 7 3 3 -1.</_>
                <_>
                  13 8 3 1 3.</_></rects>
              <tilted>0</tilted></feature>
            <threshold>4.3016881681978703e-003</threshold>
            <left_node>1</left_node>
            <right_val>0.5678787231445313</right_val></_>
          <_>
            <!-- node 1 -->
            <feature>
              <rects>
                <_>
                  14 7 1 3 -1.</_>
                <_>
                  14 8 1 1 3.</_></rects>
              <tilted>0</tilted></feature>
            <threshold>-1.4282979536801577e-003</threshold>
            <left_val>0.3159556984901428</left_val>
            <right_val>-0.7360085248947144</right_val></_></_>
        <_>
          <!-- tree 3 -->
          <_>
            <!-- root node -->
            <feature>
              <rects>
                <_>
                  20 5 9 2 -1.</_>
                <_>
                  23 5 3 2 3.</_></rects>
              <tilted>0</tilted></feature>
            <threshold>-8.9423954486846924e-003</threshold>
            <left_val>0.5224729776382446</left_val>
            <right_node>1</right_node></_>
          <_>
            <!-- node 1 -->
            <feature>
              <rects>
                <_>
                  27 5 2 6 -1.</_>
                <_>
                  28 5 1 3 2.</_>
                <_>
                  27 8 1 3 2.</_></rects>
              <tilted>0</tilted></feature>
            <threshold>2.9927969444543123e-003</threshold>
            <left_val>-0.2371362000703812</left_val>
            <right_val>0.5821418166160584</right_val></_></_>
        <_>
          <!-- tree 4 -->
          <_>
            <!-- root node -->
            <feature>
              <rects>
                <_>
                  1 5 9 2 -1.</_>
                <_>
                  4 5 3 2 3.</_></rects>
              <tilted>0</tilted></feature>
            <threshold>-0.0268371608108282</threshold>
            <left_val>0.7516375780105591</left_val>
            <right_node>1</right_node></_>
          <_>
            <!-- node 1 -->
            <feature>
              <rects>
                <_>
                  2 0 3 6 -1.</_>
                <_>
                  3 0 1 6 3.</_></rects>
              <tilted>0</tilted></feature>
            <threshold>-3.8122979458421469e-003</threshold>
            <left_val>0.5839787721633911</left_val>
            <right_val>-0.5215939879417419</right_val></_></_>
        <_>
          <!-- tree 5 -->
          <_>
            <!-- root node -->
            <feature>
              <rects>
                <_>
                  21 14 2 1 -1.</_>
                <_>
                  21 14 1 1 2.</_></rects>
              <tilted>0</tilted></feature>
            <threshold>-2.0781630155397579e-005</threshold>
            <left_val>-0.4390406906604767</left_val>
            <right_node>1</right_node></_>
          <_>
            <!-- node 1 -->
            <feature>
              <rects>
                <_>
                  12 0 18 8 -1.</_>
                <_>
                  12 0 9 8 2.</_></rects>
              <tilted>0</tilted></feature>
            <threshold>-0.0569263286888599</threshold>
            <left_val>-0.4206289947032929</left_val>
            <right_val>0.0914891511201859</right_val></_></_>
        <_>
          <!-- tree 6 -->
          <_>
            <!-- root node -->
            <feature>
              <rects>
                <_>
                  13 14 2 1 -1.</_>
                <_>
                  14 14 1 1 2.</_></rects>
              <tilted>0</tilted></feature>
            <threshold>-1.9770359358517453e-005</threshold>
            <left_node>1</left_node>
            <right_val>0.4474290013313294</right_val></_>
          <_>
            <!-- node 1 -->
            <feature>
              <rects>
                <_>
                  7 3 7 3 -1.</_>
                <_>
                  7 4 7 1 3.</_></rects>
              <tilted>0</tilted></feature>
            <threshold>-6.1455019749701023e-003</threshold>
            <left_val>0.5280146002769470</left_val>
            <right_val>-0.6372449994087219</right_val></_></_></trees>
      <stage_threshold>-1.6299099922180176</stage_threshold>
      <parent>-1</parent>
      <next>-1</next></_>
    <_>
      <!-- stage 1 -->
      <trees>
        <_>
          <!-- tree 0 -->
          <_>
            <!-- root node -->
            <feature>
              <rects>
                <_>
                  0 5 8 10 -1.</_>
                <_>
                  0 5 4 5 2.</_>
                <_>
                  4 10 4 5 2.</_></rects>
              <tilted>0</tilted></feature>
            <threshold>0.0325352884829044</threshold>
            <left_val>-0.6083915829658508</left_val>
            <right_node>1</right_node></_>
          <_>
            <!-- node 1 -->
            <feature>
              <rects>
                <_>
                  4 4 8 8 -1.</_>
                <_>
                  4 4 4 4 2.</_>
                <_>
                  8 8 4 4 2.</_></rects>
              <tilted>0</tilted></feature>
            <threshold>-0.0220107492059469</threshold>
            <left_val>0.8453261852264404</left_val>
            <right_val>-0.1926734000444412</right_val></_></_>
        <_>
          <!-- tree 1 -->
          <_>
            <!-- root node -->
            <feature>
              <rects>
                <_>
                  12 6 6 3 -1.</_>
                <_>
                  12 7 6 1 3.</_></rects>
              <tilted>0</tilted></feature>
            <threshold>0.0115992603823543</threshold>
            <left_node>1</left_node>
            <right_val>0.7846146821975708</right_val></_>
          <_>
            <!-- node 1 -->
            <feature>
              <rects>
                <_>
                  16 6 1 3 -1.</_>
                <_>
                  16 7 1 1 3.</_></rects>
              <tilted>0</tilted></feature>
            <threshold>2.2670859470963478e-003</threshold>
            <left_val>-0.2245928943157196</left_val>
            <right_val>0.7544519901275635</right_val></_></_>
        <_>
          <!-- tree 2 -->
          <_>
            <!-- root node -->
            <feature>
              <rects>
                <_>
                  13 7 2 3 -1.</_>
                <_>
                  13 8 2 1 3.</_></rects>
              <tilted>0</tilted></feature>
            <threshold>4.6354979276657104e-003</threshold>
            <left_node>1</left_node>
            <right_val>0.7027989029884338</right_val></_>
          <_>
            <!-- node 1 -->
            <feature>
              <rects>
                <_>
                  11 5 6 3 -1.</_>
                <_>
                  11 6 6 1 3.</_></rects>
              <tilted>0</tilted></feature>
            <threshold>0.0106163397431374</threshold>
            <left_val>-0.4315204918384552</left_val>
            <right_val>0.5369151830673218</right_val></_></_>
        <_>
          <!-- tree 3 -->
          <_>
            <!-- root node -->
            <feature>
              <rects>
                <_>
                  28 14 2 1 -1.</_>
                <_>
                  28 14 1 1 2.</_></rects>
              <tilted>0</tilted></feature>
            <threshold>-2.3470900487154722e-005</threshold>
            <left_val>-0.5162125229835510</left_val>
            <right_node>1</right_node></_>
          <_>
            <!-- node 1 -->
            <feature>
              <rects>
                <_>
                  28 12 1 2 -1.</_>
                <_>
                  28 13 1 1 2.</_></rects>
              <tilted>0</tilted></feature>
            <threshold>4.6865439799148589e-005</threshold>
            <left_val>0.2532272040843964</left_val>
            <right_val>-0.5576605796813965</right_val></_></_>
        <_>
          <!-- tree 4 -->
          <_>
            <!-- root node -->
            <feature>
              <rects>
                <_>
                  10 7 4 8 -1.</_>
                <_>
                  10 7 2 4 2.</_>
                <_>
                  12 11 2 4 2.</_></rects>
              <tilted>0</tilted></feature>
            <threshold>4.7313501127064228e-003</threshold>
            <left_node>1</left_node>
            <right_val>-0.7810565829277039</right_val></_>
          <_>
            <!-- node 1 -->
            <feature>
              <rects>
                <_>
                  0 1 14 5 -1.</_>
                <_>
                  7 1 7 5 2.</_></rects>
              <tilted>0</tilted></feature>
            <threshold>-0.0683183073997498</threshold>
            <left_val>-0.5002713799476624</left_val>
            <right_val>0.4963215887546539</right_val></_></_>
        <_>
          <!-- tree 5 -->
          <_>
            <!-- root node -->
            <feature>
              <rects>
                <_>
                  10 12 20 2 -1.</_>
                <_>
                  20 12 10 1 2.</_>
                <_>
                  10 13 10 1 2.</_></rects>
              <tilted>0</tilted></feature>
            <threshold>6.6989501938223839e-003</threshold>
            <left_node>1</left_node>
            <right_val>0.4397430121898651</right_val></_>
          <_>
            <!-- node 1 -->
            <feature>
              <rects>
                <_>
                  23 7 2 1 -1.</_>
                <_>
                  23 7 1 1 2.</_></rects>
              <tilted>0</tilted></feature>
            <threshold>2.0473720724112354e-005</threshold>
            <left_val>0.1712740957736969</left_val>
            <right_val>-0.3916136920452118</right_val></_></_>
        <_>
          <!-- tree 6 -->
          <_>
            <!-- root node -->
            <feature>
              <rects>
                <_>
                  11 1 5 14 -1.</_>
                <_>
                  11 8 5 7 2.</_></rects>
              <tilted>0</tilted></feature>
            <threshold>-0.0560734495520592</threshold>
            <left_val>-0.6608201265335083</left_val>
            <right_node>1</right_node></_>
          <_>
            <!-- node 1 -->
            <feature>
              <rects>
                <_>
                  4 0 11 14 -1.</_>
                <_>
                  4 7 11 7 2.</_></rects>
              <tilted>0</tilted></feature>
            <threshold>0.1319826990365982</threshold>
            <left_val>0.2490665018558502</left_val>
            <right_val>-0.6837095022201538</right_val></_></_>
        <_>
          <!-- tree 7 -->
          <_>
            <!-- root node -->
            <feature>
              <rects>
                <_>
                  26 13 1 2 -1.</_>
                <_>
                  26 14 1 1 2.</_></rects>
              <tilted>0</tilted></feature>
            <threshold>2.5320819986518472e-005</threshold>
            <left_node>1</left_node>
            <right_val>-0.5316637754440308</right_val></_>
          <_>
            <!-- node 1 -->
            <feature>
              <rects>
                <_>
                  26 13 1 2 -1.</_>
                <_>
                  26 14 1 1 2.</_></rects>
              <tilted>0</tilted></feature>
            <threshold>2.5320819986518472e-005</threshold>
            <left_val>0.1834159046411514</left_val>
            <right_val>-0.5316637754440308</right_val></_></_>
        <_>
          <!-- tree 8 -->
          <_>
            <!-- root node -->
            <feature>
              <rects>
                <_>
                  3 7 24 1 -1.</_>
                <_>
                  11 7 8 1 3.</_></rects>
              <tilted>0</tilted></feature>
            <threshold>0.0648212879896164</threshold>
            <left_node>1</left_node>
            <right_val>0.7810335755348206</right_val></_>
          <_>
            <!-- node 1 -->
            <feature>
              <rects>
                <_>
                  14 8 1 3 -1.</_>
                <_>
                  14 9 1 1 3.</_></rects>
              <tilted>0</tilted></feature>
            <threshold>1.2640330241993070e-003</threshold>
            <left_val>-0.3672758042812347</left_val>
            <right_val>0.4131182134151459</right_val></_></_></trees>
      <stage_threshold>-1.7512500286102295</stage_threshold>
      <parent>0</parent>
      <next>-1</next></_>
    <_>
      <!-- stage 2 -->
      <trees>
        <_>
          <!-- tree 0 -->
          <_>
            <!-- root node -->
            <feature>
              <rects>
                <_>
                  6 5 2 10 -1.</_>
                <_>
                  6 10 2 5 2.</_></rects>
              <tilted>0</tilted></feature>
            <threshold>0.0107326395809650</threshold>
            <left_node>1</left_node>
            <right_val>0.6894254088401794</right_val></_>
          <_>
            <!-- node 1 -->
            <feature>
              <rects>
                <_>
                  4 4 7 6 -1.</_>
                <_>
                  4 6 7 2 3.</_></rects>
              <tilted>0</tilted></feature>
            <threshold>0.0351601801812649</threshold>
            <left_val>-0.8113207817077637</left_val>
            <right_val>0.5832793116569519</right_val></_></_>
        <_>
          <!-- tree 1 -->
          <_>
            <!-- root node -->
            <feature>
              <rects>
                <_>
                  9 6 12 9 -1.</_>
                <_>
                  9 9 12 3 3.</_></rects>
              <tilted>0</tilted></feature>
            <threshold>-0.0225759092718363</threshold>
            <left_val>0.5799152851104736</left_val>
            <right_node>1</right_node></_>
          <_>
            <!-- node 1 -->
            <feature>
              <rects>
                <_>
                  8 3 14 9 -1.</_>
                <_>
                  8 6 14 3 3.</_></rects>
              <tilted>0</tilted></feature>
            <threshold>0.1201058030128479</threshold>
            <left_val>-0.3831999897956848</left_val>
            <right_val>0.8908243775367737</right_val></_></_>
        <_>
          <!-- tree 2 -->
          <_>
            <!-- root node -->
            <feature>
              <rects>
                <_>
                  4 0 3 12 -1.</_>
                <_>
                  4 4 3 4 3.</_></rects>
              <tilted>0</tilted></feature>
            <threshold>-0.0273938402533531</threshold>
            <left_val>0.4372315108776093</left_val>
            <right_node>1</right_node></_>
          <_>
            <!-- node 1 -->
            <feature>
              <rects>
                <_>
                  10 3 8 6 -1.</_>
                <_>
                  10 5 8 2 3.</_></rects>
              <tilted>0</tilted></feature>
            <threshold>-0.0213304795324802</threshold>
            <left_val>0.2270341962575913</left_val>
            <right_val>-0.9008054733276367</right_val></_></_>
        <_>
          <!-- tree 3 -->
          <_>
            <!-- root node -->
            <feature>
              <rects>
                <_>
                  18 9 12 6 -1.</_>
                <_>
                  24 9 6 3 2.</_>
                <_>
                  18 12 6 3 2.</_></rects>
              <tilted>0</tilted></feature>
            <threshold>2.5738431140780449e-003</threshold>
            <left_node>1</left_node>
            <right_val>0.2493883073329926</right_val></_>
          <_>
            <!-- node 1 -->
            <feature>
              <rects>
                <_>
                  18 6 2 3 -1.</_>
                <_>
                  18 7 2 1 3.</_></rects>
              <tilted>0</tilted></feature>
            <threshold>2.7608759701251984e-003</threshold>
            <left_val>-0.4667434096336365</left_val>
            <right_val>0.4440633952617645</right_val></_></_>
        <_>
          <!-- tree 4 -->
          <_>
            <!-- root node -->
            <feature>
              <rects>
                <_>
                  0 7 10 8 -1.</_>
                <_>
                  0 7 5 4 2.</_>
                <_>
                  5 11 5 4 2.</_></rects>
              <tilted>0</tilted></feature>
            <threshold>0.0181238502264023</threshold>
            <left_node>1</left_node>
            <right_val>0.2954728901386261</right_val></_>
          <_>
            <!-- node 1 -->
            <feature>
              <rects>
                <_>
                  4 8 21 1 -1.</_>
                <_>
                  11 8 7 1 3.</_></rects>
              <tilted>0</tilted></feature>
            <threshold>0.0459972918033600</threshold>
            <left_val>-0.5911632776260376</left_val>
            <right_val>0.8526223897933960</right_val></_></_>
        <_>
          <!-- tree 5 -->
          <_>
            <!-- root node -->
            <feature>
              <rects>
                <_>
                  20 0 1 12 -1.</_>
                <_>
                  20 6 1 6 2.</_></rects>
              <tilted>0</tilted></feature>
            <threshold>-2.9205600731074810e-004</threshold>
            <left_val>0.1578554958105087</left_val>
            <right_node>1</right_node></_>
          <_>
            <!-- node 1 -->
            <feature>
              <rects>
                <_>
                  14 4 2 6 -1.</_>
                <_>
                  14 6 2 2 3.</_></rects>
              <tilted>0</tilted></feature>
            <threshold>0.0152448602020741</threshold>
            <left_val>-0.5715708136558533</left_val>
            <right_val>0.6354041099548340</right_val></_></_>
        <_>
          <!-- tree 6 -->
          <_>
            <!-- root node -->
            <feature>
              <rects>
                <_>
                  0 8 18 2 -1.</_>
                <_>
                  0 8 9 1 2.</_>
                <_>
                  9 9 9 1 2.</_></rects>
              <tilted>0</tilted></feature>
            <threshold>1.2609889381565154e-004</threshold>
            <left_node>1</left_node>
            <right_val>0.3438042104244232</right_val></_>
          <_>
            <!-- node 1 -->
            <feature>
              <rects>
                <_>
                  10 7 5 3 -1.</_>
                <_>
                  10 8 5 1 3.</_></rects>
              <tilted>0</tilted></feature>
            <threshold>0.0133484303951263</threshold>
            <left_val>-0.6496608257293701</left_val>
            <right_val>0.7336847782135010</right_val></_></_>
        <_>
          <!-- tree 7 -->
          <_>
            <!-- root node -->
            <feature>
              <rects>
                <_>
                  4 3 24 4 -1.</_>
                <_>
                  12 3 8 4 3.</_></rects>
              <tilted>0</tilted></feature>
            <threshold>0.0111525598913431</threshold>
            <left_node>1</left_node>
            <right_val>0.3024887144565582</right_val></_>
          <_>
            <!-- node 1 -->
            <feature>
              <rects>
                <_>
                  21 2 4 8 -1.</_>
                <_>
                  23 2 2 4 2.</_>
                <_>
                  21 6 2 4 2.</_></rects>
              <tilted>0</tilted></feature>
            <threshold>-9.5933603006415069e-005</threshold>
            <left_val>0.2870573103427887</left_val>
            <right_val>-0.9233773946762085</right_val></_></_>
        <_>
          <!-- tree 8 -->
          <_>
            <!-- root node -->
            <feature>
              <rects>
                <_>
                  8 7 3 8 -1.</_>
                <_>
                  8 11 3 4 2.</_></rects>
              <tilted>0</tilted></feature>
            <threshold>3.5323449992574751e-005</threshold>
            <left_node>1</left_node>
            <right_val>-4.2002168484032154e-003</right_val></_>
          <_>
            <!-- node 1 -->
            <feature>
              <rects>
                <_>
                  5 9 12 6 -1.</_>
                <_>
                  5 9 6 3 2.</_>
                <_>
                  11 12 6 3 2.</_></rects>
              <tilted>0</tilted></feature>
            <threshold>-0.0343427509069443</threshold>
            <left_val>0.5042704939842224</left_val>
            <right_val>-0.8355494737625122</right_val></_></_>
        <_>
          <!-- tree 9 -->
          <_>
            <!-- root node -->
            <feature>
              <rects>
                <_>
                  19 0 5 8 -1.</_>
                <_>
                  19 4 5 4 2.</_></rects>
              <tilted>0</tilted></feature>
            <threshold>-4.0842029266059399e-003</threshold>
            <left_node>1</left_node>
            <right_val>-0.9319446086883545</right_val></_>
          <_>
            <!-- node 1 -->
            <feature>
              <rects>
                <_>
                  12 6 6 2 -1.</_>
                <_>
                  12 7 6 1 2.</_></rects>
              <tilted>0</tilted></feature>
            <threshold>4.6330709010362625e-003</threshold>
            <left_val>-0.9039732217788696</left_val>
            <right_val>0.5750113725662231</right_val></_></_>
        <_>
          <!-- tree 10 -->
          <_>
            <!-- root node -->
            <feature>
              <rects>
                <_>
                  6 0 5 8 -1.</_>
                <_>
                  6 4 5 4 2.</_></rects>
              <tilted>0</tilted></feature>
            <threshold>-6.1075879784766585e-005</threshold>
            <left_val>0.7462353706359863</left_val>
            <right_node>1</right_node></_>
          <_>
            <!-- node 1 -->
            <feature>
              <rects>
                <_>
                  1 13 10 2 -1.</_>
                <_>
                  1 13 5 1 2.</_>
                <_>
                  6 14 5 1 2.</_></rects>
              <tilted>0</tilted></feature>
            <threshold>9.9996541393920779e-005</threshold>
            <left_val>-0.9901385903358460</left_val>
            <right_val>0.7215849757194519</right_val></_></_>
        <_>
          <!-- tree 11 -->
          <_>
            <!-- root node -->
            <feature>
              <rects>
                <_>
                  16 5 1 3 -1.</_>
                <_>
                  16 6 1 1 3.</_></rects>
              <tilted>0</tilted></feature>
            <threshold>-8.1474910257384181e-004</threshold>
            <left_node>1</left_node>
            <right_val>-0.8935769796371460</right_val></_>
          <_>
            <!-- node 1 -->
            <feature>
              <rects>
                <_>
                  18 2 2 2 -1.</_>
                <_>
                  18 3 2 1 2.</_></rects>
              <tilted>0</tilted></feature>
            <threshold>4.7339181037386879e-005</threshold>
            <left_val>-0.8927217721939087</left_val>
            <right_val>0.3339715003967285</right_val></_></_></trees>
      <stage_threshold>-2.7467889785766602</stage_threshold>
      <parent>1</parent>
      <next>-1</next></_>
    <_>
      <!-- stage 3 -->
      <trees>
        <_>
          <!-- tree 0 -->
          <_>
            <!-- root node -->
            <feature>
              <rects>
                <_>
                  4 4 2 8 -1.</_>
                <_>
                  4 8 2 4 2.</_></rects>
              <tilted>0</tilted></feature>
            <threshold>7.8271720558404922e-003</threshold>
            <left_node>1</left_node>
            <right_val>0.5372241735458374</right_val></_>
          <_>
            <!-- node 1 -->
            <feature>
              <rects>
                <_>
                  13 7 2 3 -1.</_>
                <_>
                  13 8 2 1 3.</_></rects>
              <tilted>0</tilted></feature>
            <threshold>5.2852449007332325e-003</threshold>
            <left_val>-0.6042342185974121</left_val>
            <right_val>0.2352851927280426</right_val></_></_>
        <_>
          <!-- tree 1 -->
          <_>
            <!-- root node -->
            <feature>
              <rects>
                <_>
                  10 6 10 9 -1.</_>
                <_>
                  10 9 10 3 3.</_></rects>
              <tilted>0</tilted></feature>
            <threshold>-0.0187449995428324</threshold>
            <left_node>1</left_node>
            <right_val>-0.7418527007102966</right_val></_>
          <_>
            <!-- node 1 -->
            <feature>
              <rects>
                <_>
                  6 7 18 1 -1.</_>
                <_>
                  12 7 6 1 3.</_></rects>
              <tilted>0</tilted></feature>
            <threshold>0.0302064698189497</threshold>
            <left_val>-0.5959755778312683</left_val>
            <right_val>0.6429579854011536</right_val></_></_>
        <_>
          <!-- tree 2 -->
          <_>
            <!-- root node -->
            <feature>
              <rects>
                <_>
                  0 13 18 2 -1.</_>
                <_>
                  0 13 9 1 2.</_>
                <_>
                  9 14 9 1 2.</_></rects>
              <tilted>0</tilted></feature>
            <threshold>4.3434538383735344e-005</threshold>
            <left_node>1</left_node>
            <right_val>0.5775446295738220</right_val></_>
          <_>
            <!-- node 1 -->
            <feature>
              <rects>
                <_>
                  1 6 12 3 -1.</_>
                <_>
                  5 6 4 3 3.</_></rects>
              <tilted>0</tilted></feature>
            <threshold>-0.0649195536971092</threshold>
            <left_val>0.5931298136711121</left_val>
            <right_val>-0.2580300867557526</right_val></_></_>
        <_>
          <!-- tree 3 -->
          <_>
            <!-- root node -->
            <feature>
              <rects>
                <_>
                  21 0 7 8 -1.</_>
                <_>
                  21 4 7 4 2.</_></rects>
              <tilted>0</tilted></feature>
            <threshold>-4.1410960257053375e-003</threshold>
            <left_val>0.0874039232730865</left_val>
            <right_node>1</right_node></_>
          <_>
            <!-- node 1 -->
            <feature>
              <rects>
                <_>
                  23 1 7 12 -1.</_>
                <_>
                  23 5 7 4 3.</_></rects>
              <tilted>0</tilted></feature>
            <threshold>-2.5920181069523096e-003</threshold>
            <left_val>0.0151822697371244</left_val>
            <right_val>-0.5107926130294800</right_val></_></_>
        <_>
          <!-- tree 4 -->
          <_>
            <!-- root node -->
            <feature>
              <rects>
                <_>
                  3 0 24 6 -1.</_>
                <_>
                  11 0 8 6 3.</_></rects>
              <tilted>0</tilted></feature>
            <threshold>2.8570138965733349e-004</threshold>
            <left_node>1</left_node>
            <right_val>0.2821901142597199</right_val></_>
          <_>
            <!-- node 1 -->
            <feature>
              <rects>
                <_>
                  6 0 14 11 -1.</_>
                <_>
                  13 0 7 11 2.</_></rects>
              <tilted>0</tilted></feature>
            <threshold>-0.1306713968515396</threshold>
            <left_val>0.6247116923332214</left_val>
            <right_val>-0.4100927114486694</right_val></_></_>
        <_>
          <!-- tree 5 -->
          <_>
            <!-- root node -->
            <feature>
              <rects>
                <_>
                  21 0 7 8 -1.</_>
                <_>
                  21 4 7 4 2.</_></rects>
              <tilted>0</tilted></feature>
            <threshold>6.9571408675983548e-004</threshold>
            <left_node>1</left_node>
            <right_val>0.1766939014196396</right_val></_>
          <_>
            <!-- node 1 -->
            <feature>
              <rects>
                <_>
                  4 1 26 14 -1.</_>
                <_>
                  17 1 13 7 2.</_>
                <_>
                  4 8 13 7 2.</_></rects>
              <tilted>0</tilted></feature>
            <threshold>-0.0118393097072840</threshold>
            <left_val>0.1153767034411430</left_val>
            <right_val>-0.5801259279251099</right_val></_></_>
        <_>
          <!-- tree 6 -->
          <_>
            <!-- root node -->
            <feature>
              <rects>
                <_>
                  7 0 1 8 -1.</_>
                <_>
                  7 4 1 4 2.</_></rects>
              <tilted>0</tilted></feature>
            <threshold>-5.7005201233550906e-004</threshold>
            <left_val>0.2196758985519409</left_val>
            <right_node>1</right_node></_>
          <_>
            <!-- node 1 -->
            <feature>
              <rects>
                <_>
                  3 0 14 2 -1.</_>
                <_>
                  3 1 14 1 2.</_></rects>
              <tilted>0</tilted></feature>
            <threshold>-1.8592160195112228e-003</threshold>
            <left_val>0.1234776973724365</left_val>
            <right_val>-0.9421967864036560</right_val></_></_>
        <_>
          <!-- tree 7 -->
          <_>
            <!-- root node -->
            <feature>
              <rects>
                <_>
                  28 8 2 7 -1.</_>
                <_>
                  28 8 1 7 2.</_></rects>
              <tilted>0</tilted></feature>
            <threshold>7.7407501521520317e-005</threshold>
            <left_node>1</left_node>
            <right_val>0.2688747048377991</right_val></_>
          <_>
            <!-- node 1 -->
            <feature>
              <rects>
                <_>
                  20 4 6 2 -1.</_>
                <_>
                  20 5 6 1 2.</_></rects>
              <tilted>0</tilted></feature>
            <threshold>-3.1110509298741817e-003</threshold>
            <left_val>0.1942628026008606</left_val>
            <right_val>-0.3668924868106842</right_val></_></_>
        <_>
          <!-- tree 8 -->
          <_>
            <!-- root node -->
            <feature>
              <rects>
                <_>
                  0 8 2 7 -1.</_>
                <_>
                  1 8 1 7 2.</_></rects>
              <tilted>0</tilted></feature>
            <threshold>4.1690460056997836e-004</threshold>
            <left_node>1</left_node>
            <right_val>0.1631765067577362</right_val></_>
          <_>
            <!-- node 1 -->
            <feature>
              <rects>
                <_>
                  7 10 8 2 -1.</_>
                <_>
                  7 10 4 1 2.</_>
                <_>
                  11 11 4 1 2.</_></rects>
              <tilted>0</tilted></feature>
            <threshold>-6.9017140194773674e-003</threshold>
            <left_val>0.3093998134136200</left_val>
            <right_val>-0.5330646038055420</right_val></_></_>
        <_>
          <!-- tree 9 -->
          <_>
            <!-- root node -->
            <feature>
              <rects>
                <_>
                  8 9 15 6 -1.</_>
                <_>
                  8 12 15 3 2.</_></rects>
              <tilted>0</tilted></feature>
            <threshold>0.0202486403286457</threshold>
            <left_node>1</left_node>
            <right_val>0.1497896015644074</right_val></_>
          <_>
            <!-- node 1 -->
            <feature>
              <rects>
                <_>
                  9 1 15 12 -1.</_>
                <_>
                  9 5 15 4 3.</_></rects>
              <tilted>0</tilted></feature>
            <threshold>-8.1739053130149841e-003</threshold>
            <left_val>0.0270958002656698</left_val>
            <right_val>-0.5440207719802856</right_val></_></_>
        <_>
          <!-- tree 10 -->
          <_>
            <!-- root node -->
            <feature>
              <rects>
                <_>
                  7 0 12 10 -1.</_>
                <_>
                  7 0 6 5 2.</_>
                <_>
                  13 5 6 5 2.</_></rects>
              <tilted>0</tilted></feature>
            <threshold>2.6842979714274406e-003</threshold>
            <left_node>1</left_node>
            <right_val>0.1302729994058609</right_val></_>
          <_>
            <!-- node 1 -->
            <feature>
              <rects>
                <_>
                  14 5 2 3 -1.</_>
                <_>
                  14 6 2 1 3.</_></rects>
              <tilted>0</tilted></feature>
            <threshold>4.7890967689454556e-003</threshold>
            <left_val>-0.5063747167587280</left_val>
            <right_val>0.4514603018760681</right_val></_></_>
        <_>
          <!-- tree 11 -->
          <_>
            <!-- root node -->
            <feature>
              <rects>
                <_>
                  19 4 4 5 -1.</_>
                <_>
                  19 4 2 5 2.</_></rects>
              <tilted>0</tilted></feature>
            <threshold>7.4689532630145550e-004</threshold>
            <left_node>1</left_node>
            <right_val>0.2150056064128876</right_val></_>
          <_>
            <!-- node 1 -->
            <feature>
              <rects>
                <_>
                  16 6 2 2 -1.</_>
                <_>
                  16 6 1 2 2.</_></rects>
              <tilted>0</tilted></feature>
            <threshold>-6.2361231539398432e-004</threshold>
            <left_val>0.2356020063161850</left_val>
            <right_val>-0.4630922079086304</right_val></_></_>
        <_>
          <!-- tree 12 -->
          <_>
            <!-- root node -->
            <feature>
              <rects>
                <_>
                  0 0 7 6 -1.</_>
                <_>
                  0 3 7 3 2.</_></rects>
              <tilted>0</tilted></feature>
            <threshold>-4.0972910937853158e-004</threshold>
            <left_val>-3.3478389959782362e-003</left_val>
            <right_node>1</right_node></_>
          <_>
            <!-- node 1 -->
            <feature>
              <rects>
                <_>
                  9 6 7 3 -1.</_>
                <_>
                  9 7 7 1 3.</_></rects>
              <tilted>0</tilted></feature>
            <threshold>-2.4859760887920856e-003</threshold>
            <left_val>0.2658415138721466</left_val>
            <right_val>-0.9485800862312317</right_val></_></_>
        <_>
          <!-- tree 13 -->
          <_>
            <!-- root node -->
            <feature>
              <rects>
                <_>
                  15 5 9 2 -1.</_>
                <_>
                  18 5 3 2 3.</_></rects>
              <tilted>0</tilted></feature>
            <threshold>2.9130768962204456e-003</threshold>
            <left_node>1</left_node>
            <right_val>0.2865940034389496</right_val></_>
          <_>
            <!-- node 1 -->
            <feature>
              <rects>
                <_>
                  17 14 2 1 -1.</_>
                <_>
                  17 14 1 1 2.</_></rects>
              <tilted>0</tilted></feature>
            <threshold>-2.0222540479153395e-003</threshold>
            <left_val>-0.8901286125183106</left_val>
            <right_val>-0.1622449010610580</right_val></_></_>
        <_>
          <!-- tree 14 -->
          <_>
            <!-- root node -->
            <feature>
              <rects>
                <_>
                  6 5 9 2 -1.</_>
                <_>
                  9 5 3 2 3.</_></rects>
              <tilted>0</tilted></feature>
            <threshold>3.7723380955867469e-004</threshold>
            <left_node>1</left_node>
            <right_val>0.1831060945987701</right_val></_>
          <_>
            <!-- node 1 -->
            <feature>
              <rects>
                <_>
                  11 14 2 1 -1.</_>
                <_>
                  12 14 1 1 2.</_></rects>
              <tilted>0</tilted></feature>
            <threshold>-2.4582390324212611e-005</threshold>
            <left_val>-0.7439196109771729</left_val>
            <right_val>-0.0170476809144020</right_val></_></_>
        <_>
          <!-- tree 15 -->
          <_>
            <!-- root node -->
            <feature>
              <rects>
                <_>
                  20 9 4 6 -1.</_>
                <_>
                  20 12 4 3 2.</_></rects>
              <tilted>0</tilted></feature>
            <threshold>4.1252860683016479e-005</threshold>
            <left_node>1</left_node>
            <right_val>0.0624998398125172</right_val></_>
          <_>
            <!-- node 1 -->
            <feature>
              <rects>
                <_>
                  19 7 8 2 -1.</_>
                <_>
                  23 7 4 1 2.</_>
                <_>
                  19 8 4 1 2.</_></rects>
              <tilted>0</tilted></feature>
            <threshold>-3.6697040777653456e-003</threshold>
            <left_val>0.2239077985286713</left_val>
            <right_val>-0.4460346996784210</right_val></_></_>
        <_>
          <!-- tree 16 -->
          <_>
            <!-- root node -->
            <feature>
              <rects>
                <_>
                  0 7 12 8 -1.</_>
                <_>
                  0 7 6 4 2.</_>
                <_>
                  6 11 6 4 2.</_></rects>
              <tilted>0</tilted></feature>
            <threshold>0.0171498209238052</threshold>
            <left_node>1</left_node>
            <right_val>0.1879877001047134</right_val></_>
          <_>
            <!-- node 1 -->
            <feature>
              <rects>
                <_>
                  7 0 15 15 -1.</_>
                <_>
                  7 5 15 5 3.</_></rects>
              <tilted>0</tilted></feature>
            <threshold>0.2677563130855560</threshold>
            <left_val>-0.4394699931144714</left_val>
            <right_val>0.7405297160148621</right_val></_></_>
        <_>
          <!-- tree 17 -->
          <_>
            <!-- root node -->
            <feature>
              <rects>
                <_>
                  20 8 5 6 -1.</_>
                <_>
                  20 11 5 3 2.</_></rects>
              <tilted>0</tilted></feature>
            <threshold>3.0509640055242926e-005</threshold>
            <left_node>1</left_node>
            <right_val>0.0190158691257238</right_val></_>
          <_>
            <!-- node 1 -->
            <feature>
              <rects>
                <_>
                  25 3 2 4 -1.</_>
                <_>
                  26 3 1 2 2.</_>
                <_>
                  25 5 1 2 2.</_></rects>
              <tilted>0</tilted></feature>
            <threshold>-8.8595238048583269e-004</threshold>
            <left_val>0.1560156941413879</left_val>
            <right_val>-0.5265896916389465</right_val></_></_>
        <_>
          <!-- tree 18 -->
          <_>
            <!-- root node -->
            <feature>
              <rects>
                <_>
                  5 8 5 6 -1.</_>
                <_>
                  5 11 5 3 2.</_></rects>
              <tilted>0</tilted></feature>
            <threshold>5.8517111028777435e-005</threshold>
            <left_node>1</left_node>
            <right_val>0.1005507037043572</right_val></_>
          <_>
            <!-- node 1 -->
            <feature>
              <rects>
                <_>
                  3 3 2 4 -1.</_>
                <_>
                  3 3 1 2 2.</_>
                <_>
                  4 5 1 2 2.</_></rects>
              <tilted>0</tilted></feature>
            <threshold>1.7799260094761848e-003</threshold>
            <left_val>-0.4844362139701843</left_val>
            <right_val>0.8079810738563538</right_val></_></_>
        <_>
          <!-- tree 19 -->
          <_>
            <!-- root node -->
            <feature>
              <rects>
                <_>
                  8 1 15 6 -1.</_>
                <_>
                  8 4 15 3 2.</_></rects>
              <tilted>0</tilted></feature>
            <threshold>-2.5710400659590960e-003</threshold>
            <left_val>0.1076835021376610</left_val>
            <right_node>1</right_node></_>
          <_>
            <!-- node 1 -->
            <feature>
              <rects>
                <_>
                  8 9 15 2 -1.</_>
                <_>
                  13 9 5 2 3.</_></rects>
              <tilted>0</tilted></feature>
            <threshold>4.5608328655362129e-003</threshold>
            <left_val>-0.6069046258926392</left_val>
            <right_val>0.0777867510914803</right_val></_></_>
        <_>
          <!-- tree 20 -->
          <_>
            <!-- root node -->
            <feature>
              <rects>
                <_>
                  4 1 9 4 -1.</_>
                <_>
                  7 1 3 4 3.</_></rects>
              <tilted>0</tilted></feature>
            <threshold>1.3503859518095851e-003</threshold>
            <left_node>1</left_node>
            <right_val>0.2509764134883881</right_val></_>
          <_>
            <!-- node 1 -->
            <feature>
              <rects>
                <_>
                  4 2 2 4 -1.</_>
                <_>
                  4 2 1 2 2.</_>
                <_>
                  5 4 1 2 2.</_></rects>
              <tilted>0</tilted></feature>
            <threshold>2.1892141085118055e-003</threshold>
            <left_val>-0.4067372083663940</left_val>
            <right_val>0.7495406270027161</right_val></_></_>
        <_>
          <!-- tree 21 -->
          <_>
            <!-- root node -->
            <feature>
              <rects>
                <_>
                  20 9 4 6 -1.</_>
                <_>
                  20 12 4 3 2.</_></rects>
              <tilted>0</tilted></feature>
            <threshold>4.1252860683016479e-005</threshold>
            <left_node>1</left_node>
            <right_val>-0.0222544204443693</right_val></_>
          <_>
            <!-- node 1 -->
            <feature>
              <rects>
                <_>
                  21 7 4 2 -1.</_>
                <_>
                  23 7 2 1 2.</_>
                <_>
                  21 8 2 1 2.</_></rects>
              <tilted>0</tilted></feature>
            <threshold>7.2234641993418336e-004</threshold>
            <left_val>-0.6879296898841858</left_val>
            <right_val>0.3308682143688202</right_val></_></_>
        <_>
          <!-- tree 22 -->
          <_>
            <!-- root node -->
            <feature>
              <rects>
                <_>
                  1 5 12 4 -1.</_>
                <_>
                  5 5 4 4 3.</_></rects>
              <tilted>0</tilted></feature>
            <threshold>-2.1890620701014996e-003</threshold>
            <left_val>0.1587315052747726</left_val>
            <right_node>1</right_node></_>
          <_>
            <!-- node 1 -->
            <feature>
              <rects>
                <_>
                  12 9 5 6 -1.</_>
                <_>
                  12 11 5 2 3.</_></rects>
              <tilted>0</tilted></feature>
            <threshold>-0.0175772402435541</threshold>
            <left_val>0.8147119283676148</left_val>
            <right_val>-0.9466047286987305</right_val></_></_>
        <_>
          <!-- tree 23 -->
          <_>
            <!-- root node -->
            <feature>
              <rects>
                <_>
                  12 6 14 2 -1.</_>
                <_>
                  19 6 7 1 2.</_>
                <_>
                  12 7 7 1 2.</_></rects>
              <tilted>0</tilted></feature>
            <threshold>4.9736681394279003e-003</threshold>
            <left_node>1</left_node>
            <right_val>0.4499610960483551</right_val></_>
          <_>
            <!-- node 1 -->
            <feature>
              <rects>
                <_>
                  19 8 9 1 -1.</_>
                <_>
                  22 8 3 1 3.</_></rects>
              <tilted>0</tilted></feature>
            <threshold>3.5323449992574751e-005</threshold>
            <left_val>-0.4718329012393951</left_val>
            <right_val>0.1361874043941498</right_val></_></_>
        <_>
          <!-- tree 24 -->
          <_>
            <!-- root node -->
            <feature>
              <rects>
                <_>
                  5 7 7 8 -1.</_>
                <_>
                  5 11 7 4 2.</_></rects>
              <tilted>0</tilted></feature>
            <threshold>3.6487988836597651e-005</threshold>
            <left_node>1</left_node>
            <right_val>0.0328768901526928</right_val></_>
          <_>
            <!-- node 1 -->
            <feature>
              <rects>
                <_>
                  10 0 9 8 -1.</_>
                <_>
                  10 4 9 4 2.</_></rects>
              <tilted>0</tilted></feature>
            <threshold>-0.0205500293523073</threshold>
            <left_val>-0.6355276703834534</left_val>
            <right_val>0.5523831844329834</right_val></_></_>
        <_>
          <!-- tree 25 -->
          <_>
            <!-- root node -->
            <feature>
              <rects>
                <_>
                  8 0 15 12 -1.</_>
                <_>
                  8 6 15 6 2.</_></rects>
              <tilted>0</tilted></feature>
            <threshold>-3.1817538547329605e-004</threshold>
            <left_val>0.0713463574647903</left_val>
            <right_node>1</right_node></_>
          <_>
            <!-- node 1 -->
            <feature>
              <rects>
                <_>
                  16 7 8 8 -1.</_>
                <_>
                  20 7 4 4 2.</_>
                <_>
                  16 11 4 4 2.</_></rects>
              <tilted>0</tilted></feature>
            <threshold>4.2247278615832329e-003</threshold>
            <left_val>-0.5627713203430176</left_val>
            <right_val>0.1453904062509537</right_val></_></_>
        <_>
          <!-- tree 26 -->
          <_>
            <!-- root node -->
            <feature>
              <rects>
                <_>
                  5 7 7 8 -1.</_>
                <_>
                  5 11 7 4 2.</_></rects>
              <tilted>0</tilted></feature>
            <threshold>3.6487988836597651e-005</threshold>
            <left_node>1</left_node>
            <right_val>0.0511530116200447</right_val></_>
          <_>
            <!-- node 1 -->
            <feature>
              <rects>
                <_>
                  3 0 6 15 -1.</_>
                <_>
                  6 0 3 15 2.</_></rects>
              <tilted>0</tilted></feature>
            <threshold>3.5155140794813633e-003</threshold>
            <left_val>-0.6891577839851379</left_val>
            <right_val>0.4918101131916046</right_val></_></_>
        <_>
          <!-- tree 27 -->
          <_>
            <!-- root node -->
            <feature>
              <rects>
                <_>
                  18 7 7 8 -1.</_>
                <_>
                  18 11 7 4 2.</_></rects>
              <tilted>0</tilted></feature>
            <threshold>1.4942570123821497e-004</threshold>
            <left_node>1</left_node>
            <right_val>-0.0632057934999466</right_val></_>
          <_>
            <!-- node 1 -->
            <feature>
              <rects>
                <_>
                  21 11 3 1 -1.</_>
                <_>
                  22 11 1 1 3.</_></rects>
              <tilted>0</tilted></feature>
            <threshold>4.8874050844460726e-004</threshold>
            <left_val>-0.5653092265129089</left_val>
            <right_val>0.1253371983766556</right_val></_></_>
        <_>
          <!-- tree 28 -->
          <_>
            <!-- root node -->
            <feature>
              <rects>
                <_>
                  5 7 7 8 -1.</_>
                <_>
                  5 11 7 4 2.</_></rects>
              <tilted>0</tilted></feature>
            <threshold>3.6487988836597651e-005</threshold>
            <left_node>1</left_node>
            <right_val>0.1400056928396225</right_val></_>
          <_>
            <!-- node 1 -->
            <feature>
              <rects>
                <_>
                  6 11 3 1 -1.</_>
                <_>
                  7 11 1 1 3.</_></rects>
              <tilted>0</tilted></feature>
            <threshold>-4.7579719102941453e-004</threshold>
            <left_val>0.7804682254791260</left_val>
            <right_val>-0.2317253053188324</right_val></_></_>
        <_>
          <!-- tree 29 -->
          <_>
            <!-- root node -->
            <feature>
              <rects>
                <_>
                  18 7 7 8 -1.</_>
                <_>
                  18 11 7 4 2.</_></rects>
              <tilted>0</tilted></feature>
            <threshold>-8.4628860349766910e-005</threshold>
            <left_node>1</left_node>
            <right_val>-0.6162922978401184</right_val></_>
          <_>
            <!-- node 1 -->
            <feature>
              <rects>
                <_>
                  18 5 7 3 -1.</_>
                <_>
                  18 6 7 1 3.</_></rects>
              <tilted>0</tilted></feature>
            <threshold>6.4411951461806893e-004</threshold>
            <left_val>-0.6756923794746399</left_val>
            <right_val>0.1160397976636887</right_val></_></_>
        <_>
          <!-- tree 30 -->
          <_>
            <!-- root node -->
            <feature>
              <rects>
                <_>
                  5 7 7 8 -1.</_>
                <_>
                  5 11 7 4 2.</_></rects>
              <tilted>0</tilted></feature>
            <threshold>3.6487988836597651e-005</threshold>
            <left_node>1</left_node>
            <right_val>0.5309013724327087</right_val></_>
          <_>
            <!-- node 1 -->
            <feature>
              <rects>
                <_>
                  0 0 14 11 -1.</_>
                <_>
                  7 0 7 11 2.</_></rects>
              <tilted>0</tilted></feature>
            <threshold>0.2357621937990189</threshold>
            <left_val>0.6908680796623230</left_val>
            <right_val>-1.0000029802322388</right_val></_></_>
        <_>
          <!-- tree 31 -->
          <_>
            <!-- root node -->
            <feature>
              <rects>
                <_>
                  18 7 7 8 -1.</_>
                <_>
                  18 11 7 4 2.</_></rects>
              <tilted>0</tilted></feature>
            <threshold>1.4942570123821497e-004</threshold>
            <left_node>1</left_node>
            <right_val>-0.0557520985603333</right_val></_>
          <_>
            <!-- node 1 -->
            <feature>
              <rects>
                <_>
                  18 4 3 3 -1.</_>
                <_>
                  18 5 3 1 3.</_></rects>
              <tilted>0</tilted></feature>
            <threshold>-4.8242649063467979e-003</threshold>
            <left_val>0.4631347954273224</left_val>
            <right_val>-0.6106796860694885</right_val></_></_>
        <_>
          <!-- tree 32 -->
          <_>
            <!-- root node -->
            <feature>
              <rects>
                <_>
                  5 7 7 8 -1.</_>
                <_>
                  5 11 7 4 2.</_></rects>
              <tilted>0</tilted></feature>
            <threshold>3.6487988836597651e-005</threshold>
            <left_node>1</left_node>
            <right_val>0.1012921035289764</right_val></_>
          <_>
            <!-- node 1 -->
            <feature>
              <rects>
                <_>
                  3 2 24 4 -1.</_>
                <_>
                  11 2 8 4 3.</_></rects>
              <tilted>0</tilted></feature>
            <threshold>0.0227625798434019</threshold>
            <left_val>-0.8330761194229126</left_val>
            <right_val>0.4908384978771210</right_val></_></_>
        <_>
          <!-- tree 33 -->
          <_>
            <!-- root node -->
            <feature>
              <rects>
                <_>
                  18 7 7 8 -1.</_>
                <_>
                  18 11 7 4 2.</_></rects>
              <tilted>0</tilted></feature>
            <threshold>9.5480383606627584e-005</threshold>
            <left_node>1</left_node>
            <right_val>-0.1112942025065422</right_val></_>
          <_>
            <!-- node 1 -->
            <feature>
              <rects>
                <_>
                  13 0 12 2 -1.</_>
                <_>
                  13 0 6 2 2.</_></rects>
              <tilted>0</tilted></feature>
            <threshold>0.0153517499566078</threshold>
            <left_val>-0.6529737114906311</left_val>
            <right_val>0.3904550969600678</right_val></_></_>
        <_>
          <!-- tree 34 -->
          <_>
            <!-- root node -->
            <feature>
              <rects>
                <_>
                  5 7 7 8 -1.</_>
                <_>
                  5 11 7 4 2.</_></rects>
              <tilted>0</tilted></feature>
            <threshold>3.6487988836597651e-005</threshold>
            <left_node>1</left_node>
            <right_val>0.1555130034685135</right_val></_>
          <_>
            <!-- node 1 -->
            <feature>
              <rects>
                <_>
                  11 0 4 6 -1.</_>
                <_>
                  11 0 2 3 2.</_>
                <_>
                  13 3 2 3 2.</_></rects>
              <tilted>0</tilted></feature>
            <threshold>1.1578620178624988e-003</threshold>
            <left_val>-0.5239192247390747</left_val>
            <right_val>0.7077286839485169</right_val></_></_>
        <_>
          <!-- tree 35 -->
          <_>
            <!-- root node -->
            <feature>
              <rects>
                <_>
                  18 7 7 8 -1.</_>
                <_>
                  18 11 7 4 2.</_></rects>
              <tilted>0</tilted></feature>
            <threshold>-8.4628860349766910e-005</threshold>
            <left_node>1</left_node>
            <right_val>-0.6268767118453980</right_val></_>
          <_>
            <!-- node 1 -->
            <feature>
              <rects>
                <_>
                  18 2 1 4 -1.</_>
                <_>
                  18 4 1 2 2.</_></rects>
              <tilted>0</tilted></feature>
            <threshold>-1.0214999929303303e-004</threshold>
            <left_val>-7.8330114483833313e-003</left_val>
            <right_val>-0.7263172864913940</right_val></_></_>
        <_>
          <!-- tree 36 -->
          <_>
            <!-- root node -->
            <feature>
              <rects>
                <_>
                  5 7 7 8 -1.</_>
                <_>
                  5 11 7 4 2.</_></rects>
              <tilted>0</tilted></feature>
            <threshold>3.6487988836597651e-005</threshold>
            <left_node>1</left_node>
            <right_val>0.5474689006805420</right_val></_>
          <_>
            <!-- node 1 -->
            <feature>
              <rects>
                <_>
                  11 0 1 10 -1.</_>
                <_>
                  11 5 1 5 2.</_></rects>
              <tilted>0</tilted></feature>
            <threshold>-7.3847598396241665e-003</threshold>
            <left_val>-0.6456905007362366</left_val>
            <right_val>0.7885602116584778</right_val></_></_>
        <_>
          <!-- tree 37 -->
          <_>
            <!-- root node -->
            <feature>
              <rects>
                <_>
                  18 7 7 8 -1.</_>
                <_>
                  18 11 7 4 2.</_></rects>
              <tilted>0</tilted></feature>
            <threshold>9.5480383606627584e-005</threshold>
            <left_node>1</left_node>
            <right_val>-0.0656406506896019</right_val></_>
          <_>
            <!-- node 1 -->
            <feature>
              <rects>
                <_>
                  19 9 11 2 -1.</_>
                <_>
                  19 10 11 1 2.</_></rects>
              <tilted>0</tilted></feature>
            <threshold>2.1157220544409938e-005</threshold>
            <left_val>-0.7612140178680420</left_val>
            <right_val>0.0188467595726252</right_val></_></_>
        <_>
          <!-- tree 38 -->
          <_>
            <!-- root node -->
            <feature>
              <rects>
                <_>
                  5 7 7 8 -1.</_>
                <_>
                  5 11 7 4 2.</_></rects>
              <tilted>0</tilted></feature>
            <threshold>3.6487988836597651e-005</threshold>
            <left_node>1</left_node>
            <right_val>0.1520269960165024</right_val></_>
          <_>
            <!-- node 1 -->
            <feature>
              <rects>
                <_>
                  0 9 11 2 -1.</_>
                <_>
                  0 10 11 1 2.</_></rects>
              <tilted>0</tilted></feature>
            <threshold>-2.3018419742584229e-003</threshold>
            <left_val>0.8234277963638306</left_val>
            <right_val>-0.4550611972808838</right_val></_></_>
        <_>
          <!-- tree 39 -->
          <_>
            <!-- root node -->
            <feature>
              <rects>
                <_>
                  18 7 7 8 -1.</_>
                <_>
                  18 11 7 4 2.</_></rects>
              <tilted>0</tilted></feature>
            <threshold>-8.4628860349766910e-005</threshold>
            <left_node>1</left_node>
            <right_val>-0.6352573037147522</right_val></_>
          <_>
            <!-- node 1 -->
            <feature>
              <rects>
                <_>
                  3 0 26 10 -1.</_>
                <_>
                  16 0 13 5 2.</_>
                <_>
                  3 5 13 5 2.</_></rects>
              <tilted>0</tilted></feature>
            <threshold>-0.0110867498442531</threshold>
            <left_val>0.0146570196375251</left_val>
            <right_val>-0.7150452136993408</right_val></_></_>
        <_>
          <!-- tree 40 -->
          <_>
            <!-- root node -->
            <feature>
              <rects>
                <_>
                  5 7 7 8 -1.</_>
                <_>
                  5 11 7 4 2.</_></rects>
              <tilted>0</tilted></feature>
            <threshold>3.6487988836597651e-005</threshold>
            <left_node>1</left_node>
            <right_val>0.5403671860694885</right_val></_>
          <_>
            <!-- node 1 -->
            <feature>
              <rects>
                <_>
                  6 4 9 8 -1.</_>
                <_>
                  9 4 3 8 3.</_></rects>
              <tilted>0</tilted></feature>
            <threshold>-0.0204108003526926</threshold>
            <left_val>-1.</left_val>
            <right_val>0.7615593075752258</right_val></_></_>
        <_>
          <!-- tree 41 -->
          <_>
            <!-- root node -->
            <feature>
              <rects>
                <_>
                  18 7 7 8 -1.</_>
                <_>
                  18 11 7 4 2.</_></rects>
              <tilted>0</tilted></feature>
            <threshold>9.5480383606627584e-005</threshold>
            <left_node>1</left_node>
            <right_val>-0.0596441216766834</right_val></_>
          <_>
            <!-- node 1 -->
            <feature>
              <rects>
                <_>
                  17 8 2 4 -1.</_>
                <_>
                  18 8 1 2 2.</_>
                <_>
                  17 10 1 2 2.</_></rects>
              <tilted>0</tilted></feature>
            <threshold>1.2570670514833182e-004</threshold>
            <left_val>-0.6555365920066834</left_val>
            <right_val>0.2192588001489639</right_val></_></_>
        <_>
          <!-- tree 42 -->
          <_>
            <!-- root node -->
            <feature>
              <rects>
                <_>
                  5 7 7 8 -1.</_>
                <_>
                  5 11 7 4 2.</_></rects>
              <tilted>0</tilted></feature>
            <threshold>3.6487988836597651e-005</threshold>
            <left_node>1</left_node>
            <right_val>0.1318199038505554</right_val></_>
          <_>
            <!-- node 1 -->
            <feature>
              <rects>
                <_>
                  2 1 14 14 -1.</_>
                <_>
                  9 1 7 14 2.</_></rects>
              <tilted>0</tilted></feature>
            <threshold>0.2230266928672791</threshold>
            <left_val>0.6527205705642700</left_val>
            <right_val>-0.8327587246894836</right_val></_></_>
        <_>
          <!-- tree 43 -->
          <_>
            <!-- root node -->
            <feature>
              <rects>
                <_>
                  18 7 7 8 -1.</_>
                <_>
                  18 11 7 4 2.</_></rects>
              <tilted>0</tilted></feature>
            <threshold>-8.4628860349766910e-005</threshold>
            <left_node>1</left_node>
            <right_val>-0.6196218132972717</right_val></_>
          <_>
            <!-- node 1 -->
            <feature>
              <rects>
                <_>
                  9 5 20 7 -1.</_>
                <_>
                  9 5 10 7 2.</_></rects>
              <tilted>0</tilted></feature>
            <threshold>5.6423558853566647e-003</threshold>
            <left_val>-0.6840445995330811</left_val>
            <right_val>0.1447737962007523</right_val></_></_>
        <_>
          <!-- tree 44 -->
          <_>
            <!-- root node -->
            <feature>
              <rects>
                <_>
                  5 7 7 8 -1.</_>
                <_>
                  5 11 7 4 2.</_></rects>
              <tilted>0</tilted></feature>
            <threshold>3.6487988836597651e-005</threshold>
            <left_node>1</left_node>
            <right_val>0.5306931734085083</right_val></_>
          <_>
            <!-- node 1 -->
            <feature>
              <rects>
                <_>
                  0 13 26 2 -1.</_>
                <_>
                  13 13 13 2 2.</_></rects>
              <tilted>0</tilted></feature>
            <threshold>-0.0283743999898434</threshold>
            <left_val>-1.</left_val>
            <right_val>0.6453164219856262</right_val></_></_>
        <_>
          <!-- tree 45 -->
          <_>
            <!-- root node -->
            <feature>
              <rects>
                <_>
                  18 7 7 8 -1.</_>
                <_>
                  18 11 7 4 2.</_></rects>
              <tilted>0</tilted></feature>
            <threshold>9.5480383606627584e-005</threshold>
            <left_node>1</left_node>
            <right_val>-0.0415609590709209</right_val></_>
          <_>
            <!-- node 1 -->
            <feature>
              <rects>
                <_>
                  16 7 4 6 -1.</_>
                <_>
                  16 9 4 2 3.</_></rects>
              <tilted>0</tilted></feature>
            <threshold>-1.9220690010115504e-003</threshold>
            <left_val>0.0498775988817215</left_val>
            <right_val>-0.6883519887924194</right_val></_></_>
        <_>
          <!-- tree 46 -->
          <_>
            <!-- root node -->
            <feature>
              <rects>
                <_>
                  5 7 7 8 -1.</_>
                <_>
                  5 11 7 4 2.</_></rects>
              <tilted>0</tilted></feature>
            <threshold>3.6487988836597651e-005</threshold>
            <left_node>1</left_node>
            <right_val>0.1074367016553879</right_val></_>
          <_>
            <!-- node 1 -->
            <feature>
              <rects>
                <_>
                  9 8 6 6 -1.</_>
                <_>
                  9 8 3 3 2.</_>
                <_>
                  12 11 3 3 2.</_></rects>
              <tilted>0</tilted></feature>
            <threshold>1.9432479748502374e-003</threshold>
            <left_val>0.4271137118339539</left_val>
            <right_val>-0.9999992847442627</right_val></_></_>
        <_>
          <!-- tree 47 -->
          <_>
            <!-- root node -->
            <feature>
              <rects>
                <_>
                  18 7 7 8 -1.</_>
                <_>
                  18 11 7 4 2.</_></rects>
              <tilted>0</tilted></feature>
            <threshold>9.5480383606627584e-005</threshold>
            <left_node>1</left_node>
            <right_val>-0.1160997971892357</right_val></_>
          <_>
            <!-- node 1 -->
            <feature>
              <rects>
                <_>
                  8 6 14 6 -1.</_>
                <_>
                  8 8 14 2 3.</_></rects>
              <tilted>0</tilted></feature>
            <threshold>-0.0155654102563858</threshold>
            <left_val>0.0275010298937559</left_val>
            <right_val>-0.6743686199188232</right_val></_></_>
        <_>
          <!-- tree 48 -->
          <_>
            <!-- root node -->
            <feature>
              <rects>
                <_>
                  5 7 7 8 -1.</_>
                <_>
                  5 11 7 4 2.</_></rects>
              <tilted>0</tilted></feature>
            <threshold>3.6487988836597651e-005</threshold>
            <left_node>1</left_node>
            <right_val>0.1886392980813980</right_val></_>
          <_>
            <!-- node 1 -->
            <feature>
              <rects>
                <_>
                  1 5 2 8 -1.</_>
                <_>
                  1 5 1 4 2.</_>
                <_>
                  2 9 1 4 2.</_></rects>
              <tilted>0</tilted></feature>
            <threshold>2.3800329654477537e-004</threshold>
            <left_val>-0.5879157185554504</left_val>
            <right_val>0.8719040155410767</right_val></_></_>
        <_>
          <!-- tree 49 -->
          <_>
            <!-- root node -->
            <feature>
              <rects>
                <_>
                  18 7 7 8 -1.</_>
                <_>
                  18 11 7 4 2.</_></rects>
              <tilted>0</tilted></feature>
            <threshold>-8.4628860349766910e-005</threshold>
            <left_node>1</left_node>
            <right_val>-0.6522669196128845</right_val></_>
          <_>
            <!-- node 1 -->
            <feature>
              <rects>
                <_>
                  8 9 14 2 -1.</_>
                <_>
                  15 9 7 1 2.</_>
                <_>
                  8 10 7 1 2.</_></rects>
              <tilted>0</tilted></feature>
            <threshold>-4.1201760177500546e-004</threshold>
            <left_val>0.0875159278512001</left_val>
            <right_val>-0.6680232882499695</right_val></_></_>
        <_>
          <!-- tree 50 -->
          <_>
            <!-- root node -->
            <feature>
              <rects>
                <_>
                  5 7 7 8 -1.</_>
                <_>
                  5 11 7 4 2.</_></rects>
              <tilted>0</tilted></feature>
            <threshold>3.6487988836597651e-005</threshold>
            <left_node>1</left_node>
            <right_val>0.5623652935028076</right_val></_>
          <_>
            <!-- node 1 -->
            <feature>
              <rects>
                <_>
                  10 11 6 4 -1.</_>
                <_>
                  12 11 2 4 3.</_></rects>
              <tilted>0</tilted></feature>
            <threshold>-0.0151544502004981</threshold>
            <left_val>-1.</left_val>
            <right_val>0.9254963994026184</right_val></_></_>
        <_>
          <!-- tree 51 -->
          <_>
            <!-- root node -->
            <feature>
              <rects>
                <_>
                  18 7 7 8 -1.</_>
                <_>
                  18 11 7 4 2.</_></rects>
              <tilted>0</tilted></feature>
            <threshold>-8.4628860349766910e-005</threshold>
            <left_node>1</left_node>
            <right_val>-0.5936846137046814</right_val></_>
          <_>
            <!-- node 1 -->
            <feature>
              <rects>
                <_>
                  24 8 6 4 -1.</_>
                <_>
                  26 8 2 4 3.</_></rects>
              <tilted>0</tilted></feature>
            <threshold>3.5908011341234669e-005</threshold>
            <left_val>-0.6906237006187439</left_val>
            <right_val>0.0616839490830898</right_val></_></_>
        <_>
          <!-- tree 52 -->
          <_>
            <!-- root node -->
            <feature>
              <rects>
                <_>
                  5 7 7 8 -1.</_>
                <_>
                  5 11 7 4 2.</_></rects>
              <tilted>0</tilted></feature>
            <threshold>3.6487988836597651e-005</threshold>
            <left_node>1</left_node>
            <right_val>0.5564875006675720</right_val></_>
          <_>
            <!-- node 1 -->
            <feature>
              <rects>
                <_>
                  5 5 9 2 -1.</_>
                <_>
                  8 5 3 2 3.</_></rects>
              <tilted>0</tilted></feature>
            <threshold>-2.2664389107376337e-003</threshold>
            <left_val>-0.8075898289680481</left_val>
            <right_val>0.6611964106559753</right_val></_></_>
        <_>
          <!-- tree 53 -->
          <_>
            <!-- root node -->
            <feature>
              <rects>
                <_>
                  18 7 7 8 -1.</_>
                <_>
                  18 11 7 4 2.</_></rects>
              <tilted>0</tilted></feature>
            <threshold>9.5480383606627584e-005</threshold>
            <left_node>1</left_node>
            <right_val>-0.0546703785657883</right_val></_>
          <_>
            <!-- node 1 -->
            <feature>
              <rects>
                <_>
                  17 3 2 4 -1.</_>
                <_>
                  17 5 2 2 2.</_></rects>
              <tilted>0</tilted></feature>
            <threshold>-2.5296621024608612e-003</threshold>
            <left_val>0.0420332700014114</left_val>
            <right_val>-0.6463829874992371</right_val></_></_>
        <_>
          <!-- tree 54 -->
          <_>
            <!-- root node -->
            <feature>
              <rects>
                <_>
                  5 7 7 8 -1.</_>
                <_>
                  5 11 7 4 2.</_></rects>
              <tilted>0</tilted></feature>
            <threshold>3.6487988836597651e-005</threshold>
            <left_node>1</left_node>
            <right_val>0.1610867977142334</right_val></_>
          <_>
            <!-- node 1 -->
            <feature>
              <rects>
                <_>
                  3 1 4 2 -1.</_>
                <_>
                  3 1 2 1 2.</_>
                <_>
                  5 2 2 1 2.</_></rects>
              <tilted>0</tilted></feature>
            <threshold>-4.8077051178552210e-004</threshold>
            <left_val>-1.</left_val>
            <right_val>0.7651013731956482</right_val></_></_>
        <_>
          <!-- tree 55 -->
          <_>
            <!-- root node -->
            <feature>
              <rects>
                <_>
                  18 7 7 8 -1.</_>
                <_>
                  18 11 7 4 2.</_></rects>
              <tilted>0</tilted></feature>
            <threshold>-1.3648000312969089e-003</threshold>
            <left_node>1</left_node>
            <right_val>-0.6394423842430115</right_val></_>
          <_>
            <!-- node 1 -->
            <feature>
              <rects>
                <_>
                  21 0 3 4 -1.</_>
                <_>
                  21 2 3 2 2.</_></rects>
              <tilted>0</tilted></feature>
            <threshold>-8.4205763414502144e-005</threshold>
            <left_val>-0.0193935893476009</left_val>
            <right_val>-0.7118110060691834</right_val></_></_>
        <_>
          <!-- tree 56 -->
          <_>
            <!-- root node -->
            <feature>
              <rects>
                <_>
                  5 7 7 8 -1.</_>
                <_>
                  5 11 7 4 2.</_></rects>
              <tilted>0</tilted></feature>
            <threshold>3.6487988836597651e-005</threshold>
            <left_node>1</left_node>
            <right_val>0.5484017133712769</right_val></_>
          <_>
            <!-- node 1 -->
            <feature>
              <rects>
                <_>
                  5 8 3 7 -1.</_>
                <_>
                  6 8 1 7 3.</_></rects>
              <tilted>0</tilted></feature>
            <threshold>1.0909759439527988e-003</threshold>
            <left_val>0.7402719855308533</left_val>
            <right_val>-1.</right_val></_></_>
        <_>
          <!-- tree 57 -->
          <_>
            <!-- root node -->
            <feature>
              <rects>
                <_>
                  18 7 7 8 -1.</_>
                <_>
                  18 11 7 4 2.</_></rects>
              <tilted>0</tilted></feature>
            <threshold>9.5480383606627584e-005</threshold>
            <left_node>1</left_node>
            <right_val>-0.0706830024719238</right_val></_>
          <_>
            <!-- node 1 -->
            <feature>
              <rects>
                <_>
                  18 5 6 4 -1.</_>
                <_>
                  21 5 3 2 2.</_>
                <_>
                  18 7 3 2 2.</_></rects>
              <tilted>0</tilted></feature>
            <threshold>-2.8266960289329290e-003</threshold>
            <left_val>0.1198943033814430</left_val>
            <right_val>-0.6613212227821350</right_val></_></_>
        <_>
          <!-- tree 58 -->
          <_>
            <!-- root node -->
            <feature>
              <rects>
                <_>
                  5 7 7 8 -1.</_>
                <_>
                  5 11 7 4 2.</_></rects>
              <tilted>0</tilted></feature>
            <threshold>3.6487988836597651e-005</threshold>
            <left_node>1</left_node>
            <right_val>0.1768463999032974</right_val></_>
          <_>
            <!-- node 1 -->
            <feature>
              <rects>
                <_>
                  10 5 1 3 -1.</_>
                <_>
                  10 6 1 1 3.</_></rects>
              <tilted>0</tilted></feature>
            <threshold>2.3663429601583630e-004</threshold>
            <left_val>-0.6862297058105469</left_val>
            <right_val>0.9999998211860657</right_val></_></_>
        <_>
          <!-- tree 59 -->
          <_>
            <!-- root node -->
            <feature>
              <rects>
                <_>
                  18 7 7 8 -1.</_>
                <_>
                  18 11 7 4 2.</_></rects>
              <tilted>0</tilted></feature>
            <threshold>-6.3289208337664604e-003</threshold>
            <left_node>1</left_node>
            <right_val>-0.6449472904205322</right_val></_>
          <_>
            <!-- node 1 -->
            <feature>
              <rects>
                <_>
                  8 5 15 6 -1.</_>
                <_>
                  13 5 5 6 3.</_></rects>
              <tilted>0</tilted></feature>
            <threshold>9.2550739645957947e-003</threshold>
            <left_val>-0.8139647245407105</left_val>
            <right_val>0.0886148884892464</right_val></_></_>
        <_>
          <!-- tree 60 -->
          <_>
            <!-- root node -->
            <feature>
              <rects>
                <_>
                  5 7 7 8 -1.</_>
                <_>
                  5 11 7 4 2.</_></rects>
              <tilted>0</tilted></feature>
            <threshold>3.6487988836597651e-005</threshold>
            <left_node>1</left_node>
            <right_val>0.5119948983192444</right_val></_>
          <_>
            <!-- node 1 -->
            <feature>
              <rects>
                <_>
                  9 13 12 1 -1.</_>
                <_>
                  13 13 4 1 3.</_></rects>
              <tilted>0</tilted></feature>
            <threshold>-9.8335072398185730e-003</threshold>
            <left_val>-1.</left_val>
            <right_val>0.9296671748161316</right_val></_></_>
        <_>
          <!-- tree 61 -->
          <_>
            <!-- root node -->
            <feature>
              <rects>
                <_>
                  18 7 7 8 -1.</_>
                <_>
                  18 11 7 4 2.</_></rects>
              <tilted>0</tilted></feature>
            <threshold>9.5480383606627584e-005</threshold>
            <left_node>1</left_node>
            <right_val>-0.0462011210620403</right_val></_>
          <_>
            <!-- node 1 -->
            <feature>
              <rects>
                <_>
                  27 0 1 2 -1.</_>
                <_>
                  27 1 1 1 2.</_></rects>
              <tilted>0</tilted></feature>
            <threshold>-3.5021360963582993e-004</threshold>
            <left_val>0.0855726599693298</left_val>
            <right_val>-0.6160739064216614</right_val></_></_>
        <_>
          <!-- tree 62 -->
          <_>
            <!-- root node -->
            <feature>
              <rects>
                <_>
                  5 7 7 8 -1.</_>
                <_>
                  5 11 7 4 2.</_></rects>
              <tilted>0</tilted></feature>
            <threshold>3.6487988836597651e-005</threshold>
            <left_node>1</left_node>
            <right_val>0.0985465794801712</right_val></_>
          <_>
            <!-- node 1 -->
            <feature>
              <rects>
                <_>
                  6 4 2 8 -1.</_>
                <_>
                  6 8 2 4 2.</_></rects>
              <tilted>0</tilted></feature>
            <threshold>2.7439990080893040e-003</threshold>
            <left_val>-1.</left_val>
            <right_val>1.</right_val></_></_>
        <_>
          <!-- tree 63 -->
          <_>
            <!-- root node -->
            <feature>
              <rects>
                <_>
                  18 7 7 8 -1.</_>
                <_>
                  18 11 7 4 2.</_></rects>
              <tilted>0</tilted></feature>
            <threshold>9.5480383606627584e-005</threshold>
            <left_node>1</left_node>
            <right_val>-0.0999267771840096</right_val></_>
          <_>
            <!-- node 1 -->
            <feature>
              <rects>
                <_>
                  10 2 10 8 -1.</_>
                <_>
                  15 2 5 4 2.</_>
                <_>
                  10 6 5 4 2.</_></rects>
              <tilted>0</tilted></feature>
            <threshold>-1.0718869743868709e-003</threshold>
            <left_val>0.0203881300985813</left_val>
            <right_val>-0.7240502238273621</right_val></_></_>
        <_>
          <!-- tree 64 -->
          <_>
            <!-- root node -->
            <feature>
              <rects>
                <_>
                  5 7 7 8 -1.</_>
                <_>
                  5 11 7 4 2.</_></rects>
              <tilted>0</tilted></feature>
            <threshold>3.6487988836597651e-005</threshold>
            <left_node>1</left_node>
            <right_val>0.1092192009091377</right_val></_>
          <_>
            <!-- node 1 -->
            <feature>
              <rects>
                <_>
                  9 10 3 2 -1.</_>
                <_>
                  10 10 1 2 3.</_></rects>
              <tilted>0</tilted></feature>
            <threshold>2.0869069267064333e-003</threshold>
            <left_val>1.</left_val>
            <right_val>-0.9999995827674866</right_val></_></_>
        <_>
          <!-- tree 65 -->
          <_>
            <!-- root node -->
            <feature>
              <rects>
                <_>
                  18 7 7 8 -1.</_>
                <_>
                  18 11 7 4 2.</_></rects>
              <tilted>0</tilted></feature>
            <threshold>9.5480383606627584e-005</threshold>
            <left_node>1</left_node>
            <right_val>-0.1161032989621162</right_val></_>
          <_>
            <!-- node 1 -->
            <feature>
              <rects>
                <_>
                  13 7 4 2 -1.</_>
                <_>
                  15 7 2 1 2.</_>
                <_>
                  13 8 2 1 2.</_></rects>
              <tilted>0</tilted></feature>
            <threshold>2.2198799997568130e-003</threshold>
            <left_val>-0.6140803098678589</left_val>
            <right_val>0.4862492978572846</right_val></_></_>
        <_>
          <!-- tree 66 -->
          <_>
            <!-- root node -->
            <feature>
              <rects>
                <_>
                  5 7 7 8 -1.</_>
                <_>
                  5 11 7 4 2.</_></rects>
              <tilted>0</tilted></feature>
            <threshold>3.6487988836597651e-005</threshold>
            <left_node>1</left_node>
            <right_val>0.1831658929586411</right_val></_>
          <_>
            <!-- node 1 -->
            <feature>
              <rects>
                <_>
                  0 2 6 6 -1.</_>
                <_>
                  2 2 2 6 3.</_></rects>
              <tilted>0</tilted></feature>
            <threshold>-6.9969492033123970e-003</threshold>
            <left_val>1.</left_val>
            <right_val>-1.</right_val></_></_>
        <_>
          <!-- tree 67 -->
          <_>
            <!-- root node -->
            <feature>
              <rects>
                <_>
                  18 7 7 8 -1.</_>
                <_>
                  18 11 7 4 2.</_></rects>
              <tilted>0</tilted></feature>
            <threshold>-8.4628860349766910e-005</threshold>
            <left_node>1</left_node>
            <right_val>-0.6496632099151611</right_val></_>
          <_>
            <!-- node 1 -->
            <feature>
              <rects>
                <_>
                  24 0 6 14 -1.</_>
                <_>
                  24 0 3 14 2.</_></rects>
              <tilted>0</tilted></feature>
            <threshold>-5.9643290005624294e-003</threshold>
            <left_val>2.7657821192406118e-004</left_val>
            <right_val>-0.7192224860191345</right_val></_></_>
        <_>
          <!-- tree 68 -->
          <_>
            <!-- root node -->
            <feature>
              <rects>
                <_>
                  5 7 7 8 -1.</_>
                <_>
                  5 11 7 4 2.</_></rects>
              <tilted>0</tilted></feature>
            <threshold>3.6487988836597651e-005</threshold>
            <left_node>1</left_node>
            <right_val>0.5683001875877380</right_val></_>
          <_>
            <!-- node 1 -->
            <feature>
              <rects>
                <_>
                  1 0 3 2 -1.</_>
                <_>
                  2 0 1 2 3.</_></rects>
              <tilted>0</tilted></feature>
            <threshold>-1.7369899433106184e-003</threshold>
            <left_val>-1.</left_val>
            <right_val>1.</right_val></_></_>
        <_>
          <!-- tree 69 -->
          <_>
            <!-- root node -->
            <feature>
              <rects>
                <_>
                  18 7 7 8 -1.</_>
                <_>
                  18 11 7 4 2.</_></rects>
              <tilted>0</tilted></feature>
            <threshold>-8.4628860349766910e-005</threshold>
            <left_node>1</left_node>
            <right_val>-0.5934591293334961</right_val></_>
          <_>
            <!-- node 1 -->
            <feature>
              <rects>
                <_>
                  10 1 14 10 -1.</_>
                <_>
                  17 1 7 5 2.</_>
                <_>
                  10 6 7 5 2.</_></rects>
              <tilted>0</tilted></feature>
            <threshold>9.9456787575036287e-004</threshold>
            <left_val>-0.6760876774787903</left_val>
            <right_val>0.1896279007196426</right_val></_></_>
        <_>
          <!-- tree 70 -->
          <_>
            <!-- root node -->
            <feature>
              <rects>
                <_>
                  5 7 7 8 -1.</_>
                <_>
                  5 11 7 4 2.</_></rects>
              <tilted>0</tilted></feature>
            <threshold>3.6487988836597651e-005</threshold>
            <left_node>1</left_node>
            <right_val>0.5623105764389038</right_val></_>
          <_>
            <!-- node 1 -->
            <feature>
              <rects>
                <_>
                  1 5 8 4 -1.</_>
                <_>
                  5 5 4 4 2.</_></rects>
              <tilted>0</tilted></feature>
            <threshold>0.0136813102290034</threshold>
            <left_val>1.</left_val>
            <right_val>-1.</right_val></_></_>
        <_>
          <!-- tree 71 -->
          <_>
            <!-- root node -->
            <feature>
              <rects>
                <_>
                  18 7 7 8 -1.</_>
                <_>
                  18 11 7 4 2.</_></rects>
              <tilted>0</tilted></feature>
            <threshold>9.5480383606627584e-005</threshold>
            <left_node>1</left_node>
            <right_val>-0.0605577714741230</right_val></_>
          <_>
            <!-- node 1 -->
            <feature>
              <rects>
                <_>
                  22 0 6 11 -1.</_>
                <_>
                  22 0 3 11 2.</_></rects>
              <tilted>0</tilted></feature>
            <threshold>-1.3320479774847627e-003</threshold>
            <left_val>1.8272330053150654e-003</left_val>
            <right_val>-0.6918584704399109</right_val></_></_>
        <_>
          <!-- tree 72 -->
          <_>
            <!-- root node -->
            <feature>
              <rects>
                <_>
                  5 7 7 8 -1.</_>
                <_>
                  5 11 7 4 2.</_></rects>
              <tilted>0</tilted></feature>
            <threshold>3.6487988836597651e-005</threshold>
            <left_node>1</left_node>
            <right_val>0.1926845014095306</right_val></_>
          <_>
            <!-- node 1 -->
            <feature>
              <rects>
                <_>
                  2 0 6 11 -1.</_>
                <_>
                  5 0 3 11 2.</_></rects>
              <tilted>0</tilted></feature>
            <threshold>0.0110577102750540</threshold>
            <left_val>-0.7172626256942749</left_val>
            <right_val>1.</right_val></_></_>
        <_>
          <!-- tree 73 -->
          <_>
            <!-- root node -->
            <feature>
              <rects>
                <_>
                  18 7 7 8 -1.</_>
                <_>
                  18 11 7 4 2.</_></rects>
              <tilted>0</tilted></feature>
            <threshold>-8.4628860349766910e-005</threshold>
            <left_node>1</left_node>
            <right_val>-0.6629595160484314</right_val></_>
          <_>
            <!-- node 1 -->
            <feature>
              <rects>
                <_>
                  24 0 6 2 -1.</_>
                <_>
                  27 0 3 1 2.</_>
                <_>
                  24 1 3 1 2.</_></rects>
              <tilted>0</tilted></feature>
            <threshold>5.1416427595540881e-004</threshold>
            <left_val>-0.6547396183013916</left_val>
            <right_val>0.0796270668506622</right_val></_></_>
        <_>
          <!-- tree 74 -->
          <_>
            <!-- root node -->
            <feature>
              <rects>
                <_>
                  5 7 7 8 -1.</_>
                <_>
                  5 11 7 4 2.</_></rects>
              <tilted>0</tilted></feature>
            <threshold>3.6487988836597651e-005</threshold>
            <left_node>1</left_node>
            <right_val>0.5644229054450989</right_val></_>
          <_>
            <!-- node 1 -->
            <feature>
              <rects>
                <_>
                  4 0 3 3 -1.</_>
                <_>
                  4 1 3 1 3.</_></rects>
              <tilted>0</tilted></feature>
            <threshold>3.9766640402376652e-003</threshold>
            <left_val>1.</left_val>
            <right_val>-1.</right_val></_></_>
        <_>
          <!-- tree 75 -->
          <_>
            <!-- root node -->
            <feature>
              <rects>
                <_>
                  18 7 7 8 -1.</_>
                <_>
                  18 11 7 4 2.</_></rects>
              <tilted>0</tilted></feature>
            <threshold>-8.4628860349766910e-005</threshold>
            <left_node>1</left_node>
            <right_val>-0.5982040762901306</right_val></_>
          <_>
            <!-- node 1 -->
            <feature>
              <rects>
                <_>
                  24 8 6 4 -1.</_>
                <_>
                  27 8 3 2 2.</_>
                <_>
                  24 10 3 2 2.</_></rects>
              <tilted>0</tilted></feature>
            <threshold>6.4879983256105334e-005</threshold>
            <left_val>-0.6761283874511719</left_val>
            <right_val>-0.0103553999215364</right_val></_></_>
        <_>
          <!-- tree 76 -->
          <_>
            <!-- root node -->
            <feature>
              <rects>
                <_>
                  5 7 7 8 -1.</_>
                <_>
                  5 11 7 4 2.</_></rects>
              <tilted>0</tilted></feature>
            <threshold>3.6487988836597651e-005</threshold>
            <left_node>1</left_node>
            <right_val>0.5775290727615356</right_val></_>
          <_>
            <!-- node 1 -->
            <feature>
              <rects>
                <_>
                  7 5 10 7 -1.</_>
                <_>
                  12 5 5 7 2.</_></rects>
              <tilted>0</tilted></feature>
            <threshold>0.0668394714593887</threshold>
            <left_val>-1.</left_val>
            <right_val>1.</right_val></_></_>
        <_>
          <!-- tree 77 -->
          <_>
            <!-- root node -->
            <feature>
              <rects>
                <_>
                  18 7 7 8 -1.</_>
                <_>
                  18 11 7 4 2.</_></rects>
              <tilted>0</tilted></feature>
            <threshold>-0.0414982587099075</threshold>
            <left_node>1</left_node>
            <right_val>-0.5382689237594605</right_val></_>
          <_>
            <!-- node 1 -->
            <feature>
              <rects>
                <_>
                  14 11 6 3 -1.</_>
                <_>
                  14 11 3 3 2.</_></rects>
              <tilted>0</tilted></feature>
            <threshold>-1.5804539434611797e-003</threshold>
            <left_val>0.0668336004018784</left_val>
            <right_val>-0.6832169294357300</right_val></_></_>
        <_>
          <!-- tree 78 -->
          <_>
            <!-- root node -->
            <feature>
              <rects>
                <_>
                  5 7 7 8 -1.</_>
                <_>
                  5 11 7 4 2.</_></rects>
              <tilted>0</tilted></feature>
            <threshold>3.6487988836597651e-005</threshold>
            <left_node>1</left_node>
            <right_val>0.5349122285842896</right_val></_>
          <_>
            <!-- node 1 -->
            <feature>
              <rects>
                <_>
                  4 13 2 2 -1.</_>
                <_>
                  4 14 2 1 2.</_></rects>
              <tilted>0</tilted></feature>
            <threshold>-4.3573561124503613e-003</threshold>
            <left_val>-1.</left_val>
            <right_val>1.</right_val></_></_>
        <_>
          <!-- tree 79 -->
          <_>
            <!-- root node -->
            <feature>
              <rects>
                <_>
                  18 7 7 8 -1.</_>
                <_>
                  18 11 7 4 2.</_></rects>
              <tilted>0</tilted></feature>
            <threshold>9.5480383606627584e-005</threshold>
            <left_node>1</left_node>
            <right_val>-0.0726695433259010</right_val></_>
          <_>
            <!-- node 1 -->
            <feature>
              <rects>
                <_>
                  13 6 10 1 -1.</_>
                <_>
                  13 6 5 1 2.</_></rects>
              <tilted>0</tilted></feature>
            <threshold>1.2891879305243492e-004</threshold>
            <left_val>-0.7536206245422363</left_val>
            <right_val>0.1014669984579086</right_val></_></_>
        <_>
          <!-- tree 80 -->
          <_>
            <!-- root node -->
            <feature>
              <rects>
                <_>
                  5 7 7 8 -1.</_>
                <_>
                  5 11 7 4 2.</_></rects>
              <tilted>0</tilted></feature>
            <threshold>3.6487988836597651e-005</threshold>
            <left_node>1</left_node>
            <right_val>0.1390358954668045</right_val></_>
          <_>
            <!-- node 1 -->
            <feature>
              <rects>
                <_>
                  0 4 8 6 -1.</_>
                <_>
                  0 6 8 2 3.</_></rects>
              <tilted>0</tilted></feature>
            <threshold>-0.0129618495702744</threshold>
            <left_val>-1.</left_val>
            <right_val>1.</right_val></_></_>
        <_>
          <!-- tree 81 -->
          <_>
            <!-- root node -->
            <feature>
              <rects>
                <_>
                  18 7 7 8 -1.</_>
                <_>
                  18 11 7 4 2.</_></rects>
              <tilted>0</tilted></feature>
            <threshold>-8.4628860349766910e-005</threshold>
            <left_node>1</left_node>
            <right_val>-0.6289526820182800</right_val></_>
          <_>
            <!-- node 1 -->
            <feature>
              <rects>
                <_>
                  14 1 2 14 -1.</_>
                <_>
                  15 1 1 7 2.</_>
                <_>
                  14 8 1 7 2.</_></rects>
              <tilted>0</tilted></feature>
            <threshold>5.7956448290497065e-004</threshold>
            <left_val>-0.6532436013221741</left_val>
            <right_val>0.0539514906704426</right_val></_></_>
        <_>
